-0.22496404598276487,-0.3280884323202012,0.3328666844985995,-0.01617416649562316,0.9638172582789075,0.44048890571142585,2.0063175470283587,1.3891234414953852,0.4054846923067979,0.6587405410141459,-0.33671227336580073,-0.6257668737536116,-1.2137221805184941,-0.4851184489289376,0.8980528262034649,1.3371873096697175,0.6784562321793942,-1.371051983420774,0.1304773422512115,0.8023940849107573,0.885539794877287,0.23329528290237522,1.3884567161896841,1.001102316164979,-2.806993512864922,-0.18887621981450922,-2.665930192721894,0.9707610172002135,-0.3906927925427721,-0.15584445965495472,-0.7554485849229585,-0.19522342060778022,-0.7743675362129476,-0.26546287827483955,-1.181812409966995,0.1649020762528827,-1.2421777046389617,-0.2752333567747369,0.43877544812196206,0.10358858137186495,-0.8409333383457147,-2.5346090776173127,0.10158407313556476,-1.6061505024411742,-0.8853355225721504,-2.47677045243199,-0.20983568515382198,-0.4308282971507214,-0.043812646568742564,-0.06163264768382695,-0.16581459060869624,1.5428257028098777,1.5041971052476184,-0.3247224218205321
